svm_type c_svc
kernel_type rbf
gamma 0.125
nr_class 2
total_sv 69
rho -0.830335
label 1 0
probA -6.22923
probB -0.297805
nr_sv 48 21
SV
0.06301887716756636 17:1 28:1 30:1 31:1 34:1 35:1 39:1 44:1 45:1 50:1 52:1 60:1 65:1 67:1 68:1 69:1 70:1 71:1 72:1 73:1 76:1 80:1 81:1 82:1 83:1 86:1 88:1 94:1 95:1 97:1 106:1 
0.06476413544766786 35:1 36:1 40:1 45:1 50:1 52:1 63:1 65:1 68:1 71:1 72:1 73:1 76:1 79:1 80:1 81:1 83:1 84:1 86:1 87:1 89:1 91:1 93:1 94:1 
0.2201897079363745 36:1 40:1 44:1 46:1 50:1 57:1 64:1 73:1 76:1 82:1 84:1 91:1 93:1 94:1 
0.2619313997975186 17:1 34:1 36:1 40:1 44:1 45:1 63:1 67:1 71:1 73:1 74:1 76:1 81:1 82:1 85:1 86:1 87:1 90:1 
0.5 30:1 31:1 40:1 51:1 80:1 99:1 
0.305333135755739 28:1 34:1 43:1 50:1 60:1 64:1 67:1 76:1 80:1 88:1 90:1 92:1 93:1 94:1 106:1 
0.2143590473890736 28:1 34:1 35:1 50:1 52:1 55:1 64:1 65:1 68:1 73:1 81:1 82:1 84:1 94:1 95:1 99:1 107:1 
0.06287717218033191 28:1 34:1 36:1 43:1 61:1 63:1 64:1 65:1 67:1 73:1 76:1 80:1 92:1 93:1 94:1 95:1 
0.06898921269910872 20:1 32:1 34:1 36:1 40:1 45:1 46:1 52:1 61:1 63:1 64:1 65:1 66:1 67:1 69:1 70:1 73:1 74:1 76:1 80:1 82:1 85:1 86:1 90:1 91:1 93:1 94:1 95:1 99:1 
0.01617342529057231 20:1 32:1 35:1 40:1 45:1 50:1 52:1 55:1 63:1 64:1 65:1 67:1 68:1 72:1 73:1 76:1 82:1 84:1 85:1 86:1 88:1 94:1 95:1 107:1 
0.1125721637491997 14:1 29:1 33:1 34:1 35:1 36:1 44:1 45:1 55:1 61:1 63:1 65:1 68:1 69:1 73:1 74:1 76:1 85:1 86:1 87:1 88:1 89:1 90:1 91:1 92:1 93:1 94:1 95:1 97:1 106:1 
0.05496673179103269 28:1 34:1 35:1 36:1 50:1 52:1 57:1 63:1 67:1 73:1 76:1 81:1 82:1 85:1 88:1 91:1 94:1 95:1 
0.1734913079589357 36:1 44:1 45:1 67:1 68:1 70:1 73:1 76:1 80:1 82:1 84:1 85:1 91:1 93:1 94:1 108:1 
0.2379576135876081 28:1 31:1 34:1 43:1 44:1 50:1 51:1 61:1 66:1 73:1 76:1 80:1 84:1 88:1 91:1 93:1 
0.08239619350595032 14:1 35:1 40:1 44:1 50:1 63:1 65:1 67:1 68:1 72:1 73:1 76:1 86:1 91:1 94:1 95:1 102:1 108:1 
0.08115457657224159 34:1 35:1 36:1 44:1 45:1 52:1 63:1 65:1 67:1 72:1 73:1 82:1 88:1 93:1 94:1 95:1 96:1 99:1 
0.5 28:1 31:1 36:1 50:1 51:1 64:1 73:1 
0.08859510085112676 28:1 40:1 44:1 50:1 64:1 65:1 67:1 73:1 76:1 81:1 82:1 84:1 86:1 88:1 91:1 94:1 103:1 
0.1811830471615494 33:1 34:1 39:1 45:1 49:1 50:1 52:1 60:1 63:1 64:1 65:1 67:1 73:1 80:1 82:1 88:1 92:1 94:1 107:1 108:1 
0.05483852020266944 34:1 36:1 39:1 52:1 60:1 63:1 64:1 65:1 67:1 68:1 73:1 81:1 82:1 92:1 93:1 94:1 95:1 99:1 
0.5 46:1 93:1 99:1 
0.05956689148390421 34:1 36:1 45:1 50:1 52:1 61:1 63:1 66:1 67:1 68:1 72:1 73:1 74:1 75:1 76:1 79:1 80:1 82:1 84:1 85:1 87:1 88:1 90:1 92:1 93:1 94:1 95:1 97:1 99:1 102:1 106:1 
0.04124800962520072 28:1 29:1 31:1 34:1 36:1 50:1 52:1 55:1 56:1 60:1 63:1 64:1 65:1 67:1 68:1 73:1 76:1 80:1 82:1 86:1 87:1 93:1 95:1 106:1 
0.1078114110697202 34:1 44:1 52:1 63:1 64:1 65:1 67:1 68:1 70:1 72:1 73:1 76:1 84:1 86:1 92:1 95:1 108:1 
0.02499558440408666 35:1 36:1 50:1 52:1 60:1 65:1 67:1 68:1 73:1 76:1 82:1 83:1 84:1 86:1 89:1 93:1 94:1 96:1 
0.05145372053211167 13:1 17:1 21:1 28:1 31:1 34:1 44:1 45:1 49:1 50:1 52:1 63:1 65:1 67:1 68:1 70:1 71:1 73:1 81:1 82:1 83:1 84:1 86:1 94:1 95:1 
0.07644794549414791 33:1 34:1 35:1 36:1 44:1 45:1 52:1 67:1 68:1 73:1 81:1 82:1 83:1 84:1 86:1 92:1 93:1 94:1 99:1 
0.03639818392597433 28:1 29:1 34:1 35:1 36:1 39:1 44:1 50:1 52:1 61:1 65:1 66:1 67:1 68:1 69:1 73:1 76:1 80:1 81:1 82:1 84:1 85:1 86:1 88:1 93:1 94:1 95:1 96:1 97:1 106:1 108:1 
0.5 40:1 50:1 52:1 63:1 67:1 68:1 73:1 76:1 83:1 86:1 92:1 94:1 
0.5 34:1 44:1 63:1 65:1 70:1 76:1 92:1 95:1 
0.02492485328515347 29:1 34:1 36:1 40:1 50:1 60:1 61:1 64:1 65:1 67:1 68:1 73:1 76:1 81:1 82:1 86:1 87:1 92:1 93:1 94:1 95:1 96:1 97:1 99:1 107:1 
0.03353344828299397 17:1 20:1 21:1 28:1 34:1 43:1 44:1 45:1 50:1 52:1 55:1 60:1 63:1 64:1 65:1 67:1 68:1 70:1 72:1 73:1 76:1 80:1 81:1 82:1 84:1 85:1 86:1 88:1 90:1 91:1 92:1 93:1 94:1 95:1 96:1 107:1 108:1 
0.05024044802535845 30:1 34:1 36:1 44:1 45:1 50:1 52:1 55:1 60:1 61:1 63:1 64:1 65:1 66:1 67:1 68:1 72:1 73:1 74:1 76:1 79:1 80:1 82:1 83:1 85:1 86:1 87:1 88:1 90:1 92:1 93:1 94:1 95:1 96:1 97:1 99:1 102:1 106:1 
0.04590945732794087 17:1 21:1 29:1 34:1 35:1 36:1 39:1 44:1 45:1 50:1 60:1 63:1 67:1 68:1 69:1 72:1 73:1 76:1 80:1 83:1 84:1 85:1 86:1 91:1 93:1 94:1 96:1 97:1 99:1 107:1 
0.06826149284591029 28:1 29:1 34:1 35:1 36:1 40:1 43:1 44:1 52:1 55:1 63:1 65:1 67:1 68:1 73:1 74:1 76:1 81:1 82:1 83:1 90:1 91:1 92:1 93:1 94:1 96:1 106:1 
0.02180058732130023 28:1 29:1 34:1 35:1 36:1 43:1 44:1 45:1 50:1 52:1 60:1 61:1 63:1 64:1 65:1 66:1 67:1 68:1 69:1 70:1 73:1 76:1 79:1 81:1 82:1 84:1 85:1 86:1 90:1 91:1 93:1 94:1 95:1 97:1 99:1 107:1 
0.1451106122364243 30:1 34:1 36:1 44:1 46:1 50:1 52:1 55:1 67:1 72:1 73:1 76:1 81:1 83:1 84:1 89:1 91:1 94:1 96:1 99:1 
0.02161705797315993 30:1 34:1 36:1 45:1 50:1 52:1 55:1 63:1 65:1 67:1 68:1 72:1 73:1 79:1 81:1 82:1 86:1 92:1 93:1 94:1 95:1 
0.1054108008586674 21:1 33:1 35:1 40:1 45:1 50:1 52:1 60:1 67:1 68:1 69:1 72:1 73:1 76:1 80:1 82:1 84:1 88:1 91:1 94:1 95:1 97:1 
0.06745507895724173 28:1 32:1 34:1 35:1 40:1 50:1 52:1 63:1 65:1 67:1 68:1 73:1 76:1 82:1 84:1 85:1 90:1 92:1 94:1 107:1 108:1 
0.03196658898286333 34:1 35:1 36:1 45:1 49:1 50:1 52:1 57:1 60:1 61:1 63:1 64:1 67:1 68:1 69:1 73:1 76:1 79:1 80:1 81:1 82:1 85:1 86:1 88:1 92:1 93:1 94:1 95:1 96:1 97:1 102:1 
0.01227239990778731 14:1 17:1 21:1 34:1 36:1 40:1 44:1 45:1 50:1 52:1 60:1 65:1 67:1 70:1 72:1 73:1 76:1 80:1 82:1 84:1 86:1 91:1 94:1 96:1 
0.02343423010437333 17:1 34:1 35:1 36:1 43:1 44:1 45:1 50:1 52:1 60:1 61:1 65:1 67:1 72:1 73:1 76:1 80:1 81:1 84:1 85:1 86:1 91:1 93:1 94:1 96:1 99:1 107:1 108:1 
0.01979823876114457 14:1 29:1 30:1 34:1 35:1 40:1 44:1 45:1 50:1 52:1 60:1 63:1 64:1 65:1 67:1 68:1 73:1 79:1 80:1 82:1 85:1 86:1 91:1 93:1 94:1 95:1 99:1 
0.05304708661659045 20:1 28:1 29:1 33:1 34:1 44:1 45:1 50:1 52:1 60:1 65:1 66:1 68:1 73:1 76:1 79:1 80:1 82:1 83:1 84:1 88:1 90:1 91:1 92:1 93:1 94:1 95:1 99:1 106:1 
0.07861537518091324 29:1 33:1 36:1 44:1 49:1 50:1 55:1 60:1 65:1 67:1 68:1 73:1 76:1 81:1 82:1 83:1 84:1 85:1 86:1 88:1 89:1 92:1 94:1 99:1 
0.03217858060349944 20:1 29:1 34:1 44:1 45:1 55:1 60:1 63:1 65:1 67:1 68:1 69:1 73:1 76:1 82:1 83:1 84:1 85:1 86:1 92:1 93:1 94:1 95:1 107:1 
0.01051188828195639 29:1 36:1 44:1 50:1 52:1 60:1 63:1 65:1 67:1 68:1 71:1 73:1 76:1 81:1 82:1 83:1 84:1 86:1 89:1 92:1 94:1 95:1 108:1 
-0.5 20:1 28:1 30:1 55:1 
-0.5 29:1 40:1 76:1 
-0.09241285292145231 40:1 104:1 
-0.5 44:1 55:1 92:1 
-0.09748625663664907 34:1 
-0.3761609767726532 20:1 28:1 30:1 
-0.05986872471827378 20:1 28:1 30:1 52:1 
-0.1540718322006991 29:1 52:1 61:1 71:1 74:1 92:1 
-0.5 52:1 74:1 82:1 99:1 103:1 108:1 
-0.5 31:1 52:1 71:1 89:1 
-0.5 24:1 51:1 52:1 71:1 92:1 108:1 
-0.5 29:1 40:1 49:1 51:1 52:1 61:1 92:1 
-0.5 43:1 74:1 79:1 85:1 92:1 108:1 
-0.3735927078036933 29:1 40:1 52:1 54:1 92:1 103:1 
-0.08598552984602501 31:1 71:1 
-0.08953080539301152 99:1 
-0.362596961252644 29:1 39:1 58:1 
-0.04435916630971393 53:1 74:1 
-0.2735924216100519 40:1 52:1 80:1 
-0.06253236841141943 69:1 74:1 
-0.01661073725640418 40:1 52:1 57:1 92:1 
